63 64
3 -0.042888373 0.05965312 0.14366135 -0.2021353 -0.09789779 -0.43431622 0.171648 0.53551215 -0.5725896 -0.09468445 -0.36722413 -0.64855474 0.70753115 -0.33758938 0.12634917 -0.25097942 0.22107163 -0.01268262 0.1192005 0.5036971 0.79493386 0.44933394 -0.017010521 -0.19915207 -0.28893146 -0.4010057 -0.41285777 0.054090597 -0.67559576 0.32546023 0.09275692 -0.17452395 0.04676265 0.045231957 -0.12249997 -0.055255055 0.087900415 -0.25322592 -1.0636655 0.11067594 0.6131335 -0.28309867 -0.05200694 -0.43168274 -0.23765814 -0.3214858 -0.2505764 0.5434378 -0.3331418 -0.37694255 -0.7097914 0.45934993 0.041656703 0.2708544 -0.20350912 0.0016772646 -0.18586631 0.121049866 -0.46206903 -0.35114917 -0.6805487 0.0116328355 0.7494136 0.20725533
2 0.031042146 0.21645142 0.31250703 -0.22542493 -0.16366391 -0.37528893 0.22594684 0.6232652 -0.6887054 0.13975154 -0.334909 -0.63900083 0.60176396 -0.27057832 0.26634046 -0.2576802 0.22190997 0.0068689017 0.26678586 0.4471402 0.8390775 0.536603 -0.07785807 -0.3141301 -0.19931205 -0.32524347 -0.52318037 -0.051274568 -0.63344395 0.25128603 0.057560734 -0.2527907 0.050244935 0.0074672895 -0.07948898 -0.17773677 0.0772493 -0.21774745 -1.12835 0.021954108 0.5779174 -0.32379085 -0.1875682 -0.40167072 -0.2578895 -0.29618728 -0.22166471 0.36338496 -0.19531204 -0.2934418 -0.7418932 0.55936515 0.13701703 0.34606534 -0.22923565 -0.0130119715 -0.12664044 0.12668738 -0.42728904 -0.39308497 -0.79986554 -0.0054575056 0.7233109 0.24149363
4 -0.22307457 0.06719545 0.101235695 -0.21105763 -0.18321322 -0.39057162 0.3277807 0.6464307 -0.6392618 -0.066756204 -0.26553115 -0.60798705 0.5876963 -0.43482494 0.22592954 -0.18835224 0.2696287 0.10680973 0.22101589 0.36652625 0.77654696 0.32509723 -0.11078041 -0.12867104 -0.2897367 -0.40054467 -0.47767603 0.051889602 -0.72401094 0.11048541 0.032449845 -0.26512882 0.152089 0.15610668 -0.058334317 0.010590808 0.13480316 -0.14251499 -0.9883751 -0.01802788 0.5440157 -0.23236673 -0.0019704334 -0.3519651 -0.081916094 -0.2521132 -0.30859387 0.3796558 -0.16271843 -0.4122075 -0.74591005 0.47223198 0.2961882 0.31738564 -0.24154589 -0.04394662 -0.11605891 0.11284965 -0.30093545 -0.3128533 -0.7577554 -0.05653205 0.7134609 0.16328445
59 0.38674092 -0.7671548 -0.25893015 0.18439348 0.12621477 -0.058966257 -0.02115417 0.37651703 -0.22013338 0.020861987 -0.19321978 -0.08618919 0.24498199 -0.08985757 0.17619905 0.37715805 0.05346176 -0.008424749 0.14489679 0.22553357 0.8050708 0.2121457 -0.032495506 0.06314568 0.3561213 0.042924248 -1.1399812 0.06121915 -0.2298317 0.012477592 0.7937305 -0.5207294 0.55422735 0.14031109 -0.02914995 -0.33317542 0.08792706 -0.107940696 -0.8051213 -0.20386255 0.355952 -0.012438259 0.06870391 -0.44401956 -0.21545829 -0.4306177 -0.53063905 0.6467128 0.07371736 -0.5242276 -0.21324751 0.64144033 -0.18151312 -0.08380352 -0.3811111 0.3364432 0.18076894 -0.1453725 0.016936844 0.20970733 -0.34874284 -0.27179793 0.45079556 -0.1336726
58 0.5525844 -0.8064676 -0.32133222 0.11383508 0.11692556 -0.06163368 -0.057329465 0.1975788 -0.11714542 -0.031413976 -0.32051167 -0.25306112 0.30736616 -0.12210566 0.26709327 0.32701412 0.022292059 -0.08851512 0.06508378 0.19850704 0.79455733 0.19072104 -0.014219902 0.052782558 0.37819585 0.2235531 -1.1112 0.14878151 -0.29786932 -0.10429114 0.7818605 -0.45780993 0.5126989 0.21600072 -0.032524854 -0.34567246 0.15987208 -0.090820186 -0.6534085 -0.2990779 0.44557938 -0.041349042 -0.034349326 -0.38466805 -0.2515349 -0.24618037 -0.54894 0.45938072 0.19950336 -0.37563 -0.25021058 0.5634897 -0.110561565 -0.10002315 -0.31429675 0.06459661 0.21288571 -0.1392519 -0.07545106 -0.044765707 -0.32154337 -0.33045423 0.63345784 0.05013978
62 0.3071694 -0.7173968 -0.38488665 0.455807 0.24471548 0.09937684 0.05356116 0.27497342 -0.31023937 -0.051626086 -0.16274379 -0.4053988 0.26317385 0.052864473 0.19495663 0.25973216 -0.17090605 -0.28831354 -0.21158986 -0.06294482 0.82523906 0.28909278 -0.042838115 0.07838024 0.44047737 -0.08373724 -1.1684114 -0.053139206 -0.2542847 -0.019540234 0.42817912 -0.47909608 0.695653 0.21005675 -0.18279672 -0.45659557 0.06496212 -0.11136715 -0.87774575 -0.30703855 0.60081947 -0.022958292 0.054473337 -0.63908947 -0.037625726 -0.4588257 -0.39673442 0.5754178 0.06557308 -0.43884063 -0.2594194 0.7542172 -0.3002671 -0.09397089 -0.52695197 0.33754268 0.1735652 -0.15165466 0.040216967 0.36360562 -0.5394956 -0.20684575 0.5449991 -0.087481424
25 -0.23678368 -0.19650158 -0.3002452 0.14777787 0.7163035 -0.54065955 0.13680848 0.047796734 -0.19178513 0.17796504 0.30311802 0.22181468 0.44178334 0.37974173 0.14755698 0.11163327 0.26024324 -0.19587697 0.1090836 0.31246224 0.40824258 0.1062401 -0.016306026 0.21214925 -0.0081167575 -0.104085945 -0.45146015 0.1389743 -0.17598121 -0.1514009 0.08385248 -0.12186484 -0.02165364 -0.1787934 -0.6952016 -0.12037356 0.118422635 -0.07866026 -0.696096 -0.6177468 -0.14619108 0.057530165 0.09850538 -0.4197424 -0.19099623 -0.2688266 -0.88096505 0.18160227 0.0601643 0.10524513 -0.33204055 0.300101 -0.110500254 0.2608388 0.30418792 0.05661702 0.17857304 -0.19168371 0.04800157 0.18700962 -0.50561345 -0.09648032 0.87731826 0.21954413
57 0.50360584 -0.90465206 -0.45700723 0.098989986 -0.011882525 -0.033184536 -0.09387528 0.316396 -0.23278642 0.11413901 -0.24456269 -0.21558215 0.15179408 -0.15933076 0.18338175 0.27389926 -0.086907715 0.20268697 0.11333717 0.29268834 0.8972404 0.22672653 -0.08694358 0.12892869 0.2979179 0.20265119 -1.0862483 -0.008390219 -0.206152 0.062054574 0.6413384 -0.5364855 0.28509542 0.27597597 -0.12551887 -0.3767016 0.14121777 -0.14407529 -0.7565384 -0.29293874 0.22867055 -0.096804105 0.019069232 -0.17520408 -0.28636813 -0.39640775 -0.50177485 0.5609624 0.120334566 -0.3356286 -0.38629785 0.44330972 -0.13961253 -0.05534839 -0.24732722 0.10953121 0.19846402 -0.055714168 0.019429361 0.12746413 -0.24461801 -0.21025445 0.5127216 0.024933103
26 -0.17363812 -0.10142115 -0.26969004 0.020828748 0.49971625 -0.4147112 0.21453401 0.028930696 -0.049965367 0.15468185 0.33251897 0.19796021 0.41580838 0.37574238 0.22897828 0.054935552 0.08302777 -0.31005913 0.040670443 0.47457042 0.5048031 0.15760466 -0.14598486 0.20416602 -0.07230644 -0.1742969 -0.6059819 0.11333886 -0.12784474 -0.15848236 0.12012376 -0.12136719 0.0826214 0.0041990816 -0.6996386 -0.13504185 0.07018309 -0.03829074 -0.72263217 -0.31696704 -0.14423521 0.22502807 0.09115807 -0.43305296 -0.2536287 -0.20818685 -0.8023033 0.169175 0.14747688 0.12686938 -0.20903368 0.21024868 -0.21448359 0.38318777 0.5058557 0.18386836 0.10974557 -0.37998027 0.089578465 0.11185677 -0.68608654 0.052742418 0.86121935 0.22074164
60 0.379824 -0.8273591 -0.36029878 0.30669677 0.063038155 0.002916967 0.07953902 0.18469137 -0.30563438 0.017428467 -0.1052138 -0.2931006 0.23577753 -0.13261327 0.18411079 0.23679708 -0.0067730946 -0.17582317 0.025194492 0.1296 0.6364387 0.22731644 0.048659276 0.019627634 0.38027427 0.04283177 -1.1537489 0.1140995 -0.24000308 -0.072057955 0.60941535 -0.5516726 0.6738022 0.32687894 -0.11149683 -0.49637225 0.23970184 0.009516755 -0.8347909 -0.30321243 0.511334 0.025928361 -0.054834474 -0.57411885 -0.26104826 -0.53551304 -0.55384374 0.5416324 0.06565638 -0.40049142 -0.28662708 0.57995576 -0.32516593 -0.072747864 -0.4738822 0.19643469 0.13133092 -0.16074693 -0.07718806 0.2077068 -0.36485898 -0.20039032 0.48299488 -0.040331293
5 -0.109470524 0.11389721 -0.06389291 -0.15518872 -0.032331143 -0.41652417 0.25639835 0.66013736 -0.7025229 -0.17968535 -0.35947475 -0.54024374 0.7732095 -0.38367325 0.21151753 -0.16777954 0.23625684 0.13543448 0.23433869 0.5208579 0.4797122 0.33730134 -0.10751297 0.036793012 -0.27510983 -0.24565701 -0.45068812 -0.0651074 -0.7626747 0.24539837 -0.07153913 -0.22334045 0.24865751 -0.054028865 -0.093042634 0.0070814327 0.09467826 -0.074745305 -0.99103403 -0.07339354 0.61930203 -0.14541917 0.022685317 -0.41079396 -0.24726453 -0.19960262 -0.22840719 0.50511736 -0.28529125 -0.39718938 -0.7336841 0.4944776 0.12212323 0.21495788 -0.22128819 -0.089794055 0.016495053 0.08885507 -0.31204075 -0.24721067 -0.55487937 0.019885302 0.6212475 0.21760601
56 0.29218468 -0.99906725 -0.19499329 0.17079897 0.17897081 -0.13610846 -0.16457602 0.38794202 -0.23164494 0.17881176 -0.42548102 -0.18791561 0.18264376 -0.13615303 0.32161897 0.31384572 -0.11310683 0.15165094 -0.00012387153 0.34379882 0.9354222 0.13739799 -0.0071045007 0.077235214 0.43435004 0.25745702 -0.95605403 0.06655868 -0.35876834 0.049492482 0.62860936 -0.5010952 0.40413842 0.1417947 -0.0640449 -0.2637373 0.20624183 -0.098051816 -0.4154731 -0.19169216 0.28642517 -0.061137494 0.02689659 -0.21213752 -0.3177741 -0.29669628 -0.48496765 0.47052 0.250757 -0.4053857 -0.27428538 0.46372452 -0.13462137 0.12206697 -0.13854685 -0.007623438 0.29584637 -0.06343253 -0.1688318 0.049384695 -0.30995 -0.15764292 0.56714964 -0.03250067
61 0.31322363 -0.73095274 -0.42871636 0.37145016 0.12417018 -0.007886067 -0.034831826 0.24409755 -0.2972374 -0.026360478 -0.12619236 -0.19450663 0.42854947 -0.059025165 0.119531676 0.4135926 -0.16160288 -0.19501013 0.026129384 -0.040636577 0.77812856 0.13099949 0.043331012 0.050010797 0.4368222 -0.03345373 -1.1439283 0.0028420198 -0.2701178 -0.078239314 0.5778493 -0.46080288 0.5907988 0.1924916 -0.18787949 -0.5599103 -0.018908462 -0.12046129 -0.9526599 -0.19132094 0.61537266 0.01618692 0.014096741 -0.5610918 -0.1119855 -0.36252457 -0.3936408 0.6126002 0.2670307 -0.44509646 -0.23169297 0.74070054 -0.22896384 -0.040859513 -0.4759705 0.32885817 0.032817587 -0.15630215 -0.018832823 0.21377374 -0.47713915 -0.2366877 0.46955985 -0.06551621
46 0.17896694 -0.45282492 -0.23354793 0.33051744 0.07571209 -0.45650727 0.30221 -0.035192788 -0.25108263 0.042094212 -0.35716236 -0.14115116 0.041426267 -0.61479366 0.31308883 0.114892244 -0.4509628 0.14421113 -0.14132553 0.96948576 0.7024895 -0.010231562 -0.2584601 -0.027837947 0.27288973 0.063272946 -0.6556886 0.11133114 -0.4728119 0.049195055 0.15918934 -0.31920746 -0.24442422 -0.016941909 0.0103127565 -0.5464206 0.04479804 0.4238163 -0.31705928 -0.2226634 -0.009013663 -0.22664285 0.27049765 -0.2967454 -0.2469438 -0.10173758 -0.12244041 0.41112426 0.037377648 -0.34005883 -0.21698269 0.23763047 0.121788524 0.25262424 -0.2858583 0.23069681 0.23378068 -0.20160812 -0.05366971 -0.25231397 -0.103304125 -0.40940547 0.55316097 0.030499123
55 0.43750048 -0.9046349 -0.14777225 0.24069443 0.09810488 -0.18312244 -0.17857325 0.22874768 -0.10929609 0.07596497 -0.30665737 -0.1091157 0.25103068 -0.3458508 0.34131747 0.24553986 -0.25024852 0.10668312 -0.05596706 0.2846371 0.9277249 0.23739858 -0.048598435 0.25846812 0.35087317 0.35878664 -0.8883068 -0.20473726 -0.3626401 0.041055173 0.5325283 -0.4480951 0.26612198 0.16069244 -0.063334316 -0.26471788 0.39131778 -0.076940455 -0.53419703 -0.29977837 0.15045266 -0.005379462 0.20724297 -0.061605215 -0.26886752 -0.33056524 -0.4175795 0.55344594 0.1773562 -0.3534988 -0.39412513 0.47917083 -0.038740084 -0.094061874 -0.15651241 0.02961446 0.19575201 0.050360095 -0.0035497642 -0.07230726 -0.36344245 -0.17332715 0.6582364 0.10448533
13 -0.118316405 0.02023977 0.052930508 -0.104999654 0.3261112 -0.24513064 0.20625094 0.025513025 -0.8024422 0.066443555 0.15747511 -0.39679766 0.7388514 -0.18640155 0.119624846 -0.24167664 0.0792123 0.18954267 0.20166394 0.4928001 0.6918677 0.023704665 -0.07438581 0.62969834 -0.399396 -0.14287136 -0.6600468 0.2347282 -0.46937507 -0.040547397 -0.11783687 0.078672744 0.23177136 -0.11640313 -0.2966769 -0.15319441 0.020870864 0.1094672 -0.68603057 -0.12662359 0.21504013 0.06857723 0.07192496 -0.25781655 -0.070602044 -0.074742705 -0.7694896 0.4120781 -0.10396497 -0.17026567 -0.31614244 0.31302768 0.0677568 -0.06790337 0.08801146 -0.06862861 0.1277598 0.21014759 -0.34157327 -0.0021328835 -0.4856897 -0.0742715 0.5704501 -0.12436701
14 -0.14032692 0.0047917576 -0.05442273 -0.099081635 0.30289885 -0.29278585 0.046055865 0.14200199 -0.50464356 0.23060815 0.17263393 -0.4370603 0.6867526 -0.17759112 0.30657023 -0.2826511 0.11028427 0.24810235 0.20763089 0.37751353 0.64865035 -0.051215626 -0.10613456 0.5129824 -0.35750934 -0.3256043 -0.65085715 0.11302637 -0.4950632 0.15549256 -0.17431603 0.2253841 0.26238248 -0.1376656 -0.35297444 -0.25143707 0.13980122 0.1604156 -0.6597232 -0.34205157 0.2214202 0.108850196 0.051031906 -0.22596075 -0.10460687 0.014352719 -0.89983815 0.30622542 -0.136985 -0.1996762 -0.29978338 0.3993875 -0.14892484 0.10031213 0.1882125 0.028069358 0.09481021 0.19512339 -0.13317236 -0.11765248 -0.36848634 -0.17518516 0.59579843 -0.22739601
6 -0.26451632 0.023421917 -0.15030907 -0.24816361 0.08557253 -0.26874128 0.29643387 0.48895392 -0.6155986 -0.2011614 -0.27743986 -0.6820746 0.6420752 -0.48603708 0.15908022 -0.13457888 0.34746948 0.018169753 0.17681372 0.39612806 0.6012605 0.1964103 -0.08079261 0.18243812 -0.19609503 -0.39713067 -0.41001534 0.0030364122 -0.96908087 0.21635117 0.02531251 -0.07484196 0.07455834 0.079310186 -0.10385351 -0.04794107 0.1390737 -0.123096555 -0.9639634 -0.116530746 0.4041857 -0.15637796 0.024917671 -0.2866034 -0.23936133 -0.28996846 -0.31959254 0.42716634 -0.23042642 -0.43663332 -0.6648859 0.49281698 0.25575468 0.20751616 -0.20249628 -0.14052947 -0.07402382 0.041408837 -0.37133658 -0.16475333 -0.65148634 -0.049471222 0.52792704 -0.0028688004
41 0.14570604 -0.2524385 -0.2820125 0.35413358 0.051047552 -0.65447503 0.3020573 -0.40140852 -0.1510029 -0.08438819 -0.41515955 0.20479852 0.02142053 -0.31380343 0.4752002 0.18401374 -0.13864727 -0.07442538 0.12280292 0.886365 0.81963086 0.19196019 -0.40734088 0.015176208 0.052582018 -0.21064574 -0.4940105 0.13256724 -0.4540171 0.26621756 0.04844028 -0.33533725 -0.23392673 -0.17085823 -0.15072873 -0.43723595 0.0076018055 -0.0044200853 -0.25360578 -0.25742215 -0.04351157 -0.051922385 0.27625805 -0.15066533 -0.40093505 -0.21148713 -0.21797286 0.25301495 0.0843844 -0.2340845 -0.23036158 0.17970718 0.22847235 0.5552829 -0.24244522 0.053021464 0.22166955 -0.33203468 0.031286255 -0.19390082 -0.3959689 0.07985223 0.6695969 0.3396273
52 0.25210187 -0.9192726 -0.057660274 0.35821772 0.074828275 -0.33282036 -0.03181913 0.207632 -0.073122494 0.1697589 -0.30642092 -0.2800795 0.2804942 -0.5895945 0.13245977 0.1570675 -0.089326985 0.10587415 -0.03473869 0.4252192 0.93658775 0.0576087 -0.025372367 0.3006275 0.25944865 0.19776839 -0.9384412 -0.12787291 -0.16428274 0.18345952 0.27501667 -0.2781348 0.2945443 -0.16982237 -0.094781734 -0.41476873 0.44899744 0.040511824 -0.34928727 -0.24202304 0.017518543 -0.21938631 0.3283659 -0.22192055 -0.30757952 -0.32831064 -0.13443716 0.42073828 0.35901734 -0.32404935 -0.29823765 0.2857822 0.06421988 0.07384611 -0.21569085 0.15693958 0.25498888 -0.33513552 -0.16507897 -0.13988031 -0.30920932 -0.16323955 0.5036196 0.26316023
45 0.24322653 -0.35440576 -0.1403289 0.4301044 -0.03551277 -0.37240654 0.2918742 0.033538014 -0.107559554 -0.015767138 -0.33099192 -0.18821989 0.020453779 -0.66370994 0.3847275 0.10120238 -0.35539776 0.021894056 0.16428886 0.99020386 0.7109774 0.034187227 -0.22954682 0.097078614 0.3741573 0.04221728 -0.59460217 0.33096176 -0.31313342 0.20524518 0.07062287 -0.36021474 -0.20808181 -0.02485492 -0.13672906 -0.5844893 -0.057588175 0.12572908 -0.15649898 -0.27096695 0.08399333 -0.03339376 0.20055954 -0.1904625 -0.36284018 -0.112110205 -0.18490379 0.5542405 -0.057848483 -0.27086383 -0.11801329 0.21963166 0.30389985 0.32335407 -0.28770536 0.14717232 0.12489342 -0.21452278 0.027923897 -0.22017127 -0.21150547 -0.28002778 0.6509469 0.0793079
51 0.14016218 -0.6725764 0.09149681 0.13935456 0.05193946 -0.24747127 0.04457432 0.03639368 0.05195793 0.12754795 -0.34818068 -0.17543966 0.23136838 -0.47002226 0.26973087 0.24168661 -0.2121885 0.16045338 -0.15383403 0.6129511 0.9270212 -0.13421693 0.07453782 0.29067075 0.31718686 0.16671304 -1.0032817 -0.0096131405 -0.25038347 0.21183942 0.3169049 -0.35810322 0.17126316 -0.12366427 -0.15349583 -0.46234143 0.4542408 0.13118339 -0.48813656 -0.3100878 0.14903682 -0.082214154 0.13814424 -0.24946077 -0.14211516 -0.38422382 -0.008027973 0.379629 0.27678448 -0.34853145 -0.35642374 0.22025596 0.18890826 0.10871537 -0.35297364 0.2502372 0.3907756 -0.19962966 -0.1007044 -0.10275721 -0.17835017 -0.1507281 0.5149272 0.29712415
24 -0.21217923 -0.18746719 -0.3676364 -0.07163211 0.60696113 -0.2899367 0.13790196 0.14422578 -0.17853624 0.009681098 0.32053024 0.20867223 0.6279323 0.42168346 0.2400968 0.15465897 0.19393505 -0.11227405 0.12817068 0.43503675 0.40892208 0.13775383 -0.010001501 0.31336564 -0.015891394 -0.07390518 -0.47295514 0.17071076 -0.21548513 -0.18248735 -0.05303757 0.051892985 -0.0037471757 0.08805172 -0.6484484 -0.111147605 0.3219875 0.13570043 -0.656354 -0.46202826 -0.13642386 0.075952865 0.10398038 -0.41261306 -0.14687493 -0.23017193 -0.85338324 0.2788488 0.112158075 0.06570699 -0.40453303 0.37036416 -0.12636718 0.23876835 0.41278258 0.07912463 0.2739785 -0.43189046 0.02842223 0.1519356 -0.60792196 -0.05104596 0.71974295 0.027102886
40 0.17343694 -0.33157614 -0.11406011 0.17073934 0.23734045 -0.7600592 0.26003918 -0.25938028 -0.32649714 -0.044909436 -0.3227314 0.15690665 -0.024362965 -0.3864055 0.36115 0.24576421 -0.16908404 -0.1509574 -0.019720118 0.8338133 0.68391323 0.013498299 -0.42487752 -0.0456989 0.22266105 -0.01903368 -0.3621767 0.12191917 -0.40883207 0.39576983 -0.008399197 -0.24287297 -0.17259423 -0.05554193 -0.24025376 -0.40222588 -0.028033087 0.022998547 -0.40728578 -0.2255675 -0.04863939 -0.0170992 0.3042978 -0.32265228 -0.21978897 -0.17410208 -0.1534816 0.23278712 -0.019926991 -0.11743352 -0.29659888 0.110171534 0.23713437 0.64121646 -0.16228555 -0.04843372 0.13671723 -0.50701106 0.24892583 -0.17273724 -0.558616 0.0656591 0.73067546 0.30777073
54 0.44518214 -1.0003381 -0.27925554 0.19146119 0.13453938 -0.38905156 -0.1169303 0.34253475 -0.015976408 0.32998395 -0.4316058 -0.23382571 0.23967643 -0.40249377 0.23490624 0.13787425 -0.25560156 0.09094165 -0.0015013481 0.3347493 0.9864106 -0.011713984 -0.04007029 0.25012687 0.24535275 0.3177595 -0.89154756 -0.031566788 -0.3706975 0.10105935 0.4394341 -0.32739836 0.24765474 0.043331064 -0.1537212 -0.24519767 0.36043555 -0.06460586 -0.4375678 -0.30536997 0.25965676 -0.12037096 0.11455143 -0.21111932 -0.20079115 -0.31084478 -0.2565408 0.47465304 0.29943928 -0.25452974 -0.33840474 0.35472098 0.04134066 0.050095323 -0.18625319 0.13077141 0.32607386 -0.09177432 -0.10632067 0.115074396 -0.3425557 0.002021483 0.49647248 0.09837281
27 -0.18909346 -0.106542096 -0.16278432 0.098744705 0.44122118 -0.58932984 0.23780294 -0.03566812 -0.19122131 0.21245494 0.288666 0.23577426 0.40988532 0.51271635 0.22884868 0.18298618 0.06649024 -0.37144974 0.1783532 0.2684226 0.5625533 0.34477338 -0.18190031 0.26232496 -0.0070508174 -0.105023205 -0.4508155 0.23773624 -0.024582861 0.013484617 0.08984172 -0.19638053 -0.13980097 0.023086278 -0.57314235 -0.10469606 0.057405367 -0.00070108013 -0.637912 -0.4747055 -0.10204359 0.10848675 0.050044417 -0.5071184 -0.08392532 -0.21940674 -0.8373741 0.344362 0.071382284 0.13326113 -0.27028856 0.22737929 -0.3436911 0.569918 0.23730414 0.090306684 0.16871907 -0.30243948 0.009669783 0.007749727 -0.605187 -0.17640373 0.8056005 0.26117986
17 -0.41170368 0.051241666 -0.28064218 -0.28286257 0.44242233 -0.16666149 0.10821442 0.16156729 -0.29621297 0.23002398 0.34815443 -0.3911228 0.68989986 -0.043978915 0.19557954 -0.1535616 0.2840236 0.28534245 0.04202174 0.42947268 0.519103 0.058376808 -0.107962795 0.65975606 -0.12007894 -0.069322616 -0.6974423 0.08270688 -0.34595734 -0.003494215 -0.104850546 -0.07359628 0.1436616 -0.0029989358 -0.43929455 -0.13728242 0.064867 0.13331003 -0.5051894 -0.44858333 0.13588546 0.0410973 0.038242027 -0.44894755 -0.3090724 -0.04228228 -0.793317 0.38007405 -0.054996897 -0.031299073 -0.18511492 0.39288855 -0.029675264 0.15686713 0.22385259 0.2846377 0.06832837 0.19869636 -0.19623813 -0.22738512 -0.31867275 -0.22319847 0.70928353 -0.1314705
42 0.20486072 -0.30050018 -0.07175621 0.34509012 0.16151658 -0.63025653 0.28220114 -0.25839955 -0.09050709 -0.090934545 -0.39790863 0.08971033 -0.18147062 -0.4907388 0.29804042 0.12339331 -0.13787743 -0.066495575 0.23930575 1.0114897 0.77335733 0.13402982 -0.40869635 0.18566787 0.22418271 -0.047618877 -0.4810893 0.25978398 -0.39340997 0.40891075 0.10534507 -0.31085035 -0.09651151 0.09100937 -0.142613 -0.4066229 -0.09917475 0.10976032 -0.38986775 -0.13810183 -0.06340334 -0.04591529 0.24638547 -0.3008025 -0.3844401 -0.10989617 -0.1832047 0.241998 0.1541723 -0.1514073 -0.3371666 0.21529298 0.12437802 0.5607495 -0.18332519 -0.008581045 0.20372954 -0.2879694 0.09240604 -0.27712867 -0.3623746 -0.12902415 0.5733794 0.2797298
16 -0.28120232 -0.031961646 -0.13104615 -0.1530302 0.31337452 -0.34743607 0.07270054 0.123720065 -0.43713674 0.03743946 0.24538666 -0.53489983 0.5939995 0.10719621 0.2712366 -0.08471506 0.018297557 0.23005293 0.29673055 0.3862655 0.5842947 0.015165943 0.00029422072 0.6219158 -0.22946037 -0.08153573 -0.68399847 0.25134695 -0.4158131 -0.00016995809 -0.22098714 0.17289881 0.26940936 -0.0405353 -0.42609468 -0.1168426 0.031619478 0.16855182 -0.68427944 -0.5037293 0.091765024 -0.0076791337 0.12929767 -0.2787319 -0.30338943 -0.13404301 -0.7084141 0.23449868 -0.14495303 -0.10802598 -0.19828695 0.3028711 -0.04949557 0.0970805 0.24652928 0.27966043 0.076527566 0.25951838 -0.25161663 -0.17458145 -0.36445346 -0.2745496 0.66373295 -0.2212587
53 0.17315526 -0.99119335 -0.044939213 0.12758689 0.017116025 -0.21758774 -0.050268393 0.1425324 -0.039022915 0.3286113 -0.26488572 -0.11404032 0.18427816 -0.39465952 0.18215796 0.16062742 -0.31903875 0.18278636 -0.081748754 0.5587426 0.9057827 0.10518063 0.049862172 0.29875124 0.3989198 0.27152142 -0.9245308 -0.12779358 -0.30007645 0.22293839 0.358088 -0.29876864 0.25548273 -0.064415775 -0.04920643 -0.26980317 0.32224333 0.0034582773 -0.45128244 -0.398043 0.27727452 0.0372995 0.25462767 -0.18758395 -0.20785636 -0.33570254 -0.14334024 0.40700865 0.30360684 -0.4827724 -0.34488922 0.31205887 -0.024355344 0.0033665854 -0.24988358 -0.02916983 0.22005628 -0.20854007 -0.11488625 -0.0580618 -0.37034714 -0.0861043 0.632681 0.13236211
15 -0.1628637 -0.010975331 -0.12027422 -0.17361069 0.2057287 -0.27849838 0.018694954 0.040423274 -0.5929279 0.14010379 0.41704762 -0.4251093 0.57703686 -0.056917287 0.22443701 -0.29628512 0.2143023 0.20896146 0.117322326 0.39809608 0.7711102 0.06991471 -0.06164746 0.6270618 -0.2511998 -0.03836448 -0.59773356 0.18962993 -0.4938552 -0.030287309 -0.19289231 0.09271045 0.20379587 -0.1174403 -0.47569343 -0.08590391 0.09166008 0.22006686 -0.6664846 -0.3126267 0.16852194 0.008241379 -0.0027146137 -0.44265714 -0.27232257 0.0051003597 -0.7071486 0.40353125 -0.104061015 -0.24418306 -0.12512589 0.5103427 0.06523808 0.13304144 0.34271434 0.03492865 0.13446338 0.23283365 -0.19104911 -0.054750774 -0.2867116 -0.16735359 0.593235 -0.1445284
12 -0.010232515 0.031375136 0.04575479 -0.046166338 0.3473552 -0.0875083 0.11230669 0.13936405 -0.71848524 0.18270321 -0.012615747 -0.46680143 0.7400766 -0.25734264 0.22988373 -0.17955922 0.22328402 0.13568206 0.1374616 0.5866534 0.7705574 -0.080245666 -0.09462607 0.56302035 -0.39925405 -0.4361198 -0.43193603 0.15664567 -0.4631839 -0.08806952 -0.014941814 0.08710592 0.4341379 -0.1116982 -0.31175804 -0.14178051 0.061121885 0.16224056 -0.86583555 -0.34386086 0.23297523 0.06481994 -0.007368505 -0.1538969 -0.025917975 -0.09573158 -0.63797015 0.41691405 -0.15631126 -0.2500091 -0.407845 0.3276729 0.053143222 0.12548307 0.19070503 -0.119985975 0.01640232 0.17262855 -0.21249078 -0.07622723 -0.33769426 -0.15345281 0.533824 0.02393373
44 0.2539233 -0.49167883 -0.1992704 0.26837447 0.10977551 -0.33882767 0.3289432 -0.12908213 -0.13564621 -0.029101554 -0.3930737 0.04775869 -0.08296787 -0.6427233 0.32153755 0.17924787 -0.25690654 0.025613047 0.15833014 0.8853755 0.77163756 0.16745444 -0.44146988 0.006327041 0.069523804 0.0021354095 -0.5570042 0.2816723 -0.42257282 0.2730238 0.07672898 -0.3473615 -0.20247614 -0.017106298 -0.05852001 -0.45995703 -0.11776987 0.33048862 -0.31611738 -0.2740443 -0.06422397 -0.03276861 0.21994793 -0.25659502 -0.42664993 0.0029783638 -0.07915855 0.4029383 0.02496867 -0.27435005 -0.16204873 0.20220053 0.1444548 0.41523525 -0.3279255 0.19924468 0.2542906 -0.18758932 -0.08718672 -0.30917796 -0.29448858 -0.26130363 0.6573651 0.15250707
43 0.30857766 -0.3778263 -0.22218008 0.15114573 -0.025756225 -0.5586527 0.44313014 -0.23465402 -0.2526118 -0.09067528 -0.5572225 0.012443362 0.038926825 -0.48925182 0.45205855 -0.029864406 -0.24757679 0.025093088 0.16344266 0.8358348 0.73315185 0.10630401 -0.22549428 0.1388976 0.29374245 -0.06770208 -0.52511656 0.23051651 -0.34582776 0.27770835 0.16578855 -0.4722278 -0.24773227 -0.084637046 -0.021362165 -0.51117 -0.0823007 0.12301728 -0.262849 -0.26988342 -0.0761704 -0.059124146 0.33780745 -0.29006046 -0.36177805 -0.16216098 -0.17960617 0.37934157 0.0367476 -0.21217704 -0.09843055 0.1696977 0.19084267 0.5595429 -0.18680866 0.03765336 0.12778585 -0.3216357 0.10153863 -0.22376734 -0.3014592 -0.19775948 0.640176 0.19659963
7 -0.1637001 0.03549185 -0.30769995 -0.18056712 0.17241648 -0.24250774 0.24366593 0.5157078 -0.7756987 -0.26479328 -0.23185149 -0.5996943 0.61088526 -0.326112 0.06620152 -0.25577497 0.25997567 0.07580019 0.31695053 0.6371872 0.6454871 0.06614922 -0.07442242 0.17558078 -0.231089 -0.27963018 -0.33637705 -0.075035095 -0.7103466 0.17813027 -0.058895435 -0.10071495 0.33220825 -0.007816824 0.013337287 -0.0578907 0.28982082 -0.075259484 -0.90983003 -0.13382742 0.43853962 -0.086461045 0.06981047 -0.2904816 -0.07121922 -0.1771416 -0.37759623 0.3960201 -0.18687855 -0.42298633 -0.619657 0.56146497 0.29604593 0.25714815 -0.23914193 -0.06167582 -0.04807158 0.16975288 -0.2983175 -0.21872377 -0.5165829 0.12027318 0.6844986 0.04727333
47 0.16015251 -0.527862 -0.18586504 0.36950207 0.08965208 -0.27319914 -0.078620315 -0.027884113 -0.35114297 0.035684958 -0.28948912 -0.19050226 0.14728127 -0.6678352 0.47182032 0.121662185 -0.3989289 0.093678825 0.034081686 0.84368634 0.64238477 -0.1269924 -0.06792908 0.011477151 0.26487598 0.10342185 -0.751616 0.20613988 -0.35801935 0.27614868 0.1553811 -0.31768143 -0.15854713 0.055777904 -0.21444269 -0.5486973 0.07509531 0.32075003 -0.21011768 -0.18737558 0.01805734 -0.14313743 0.1759673 -0.22792348 -0.30633134 -0.14853644 -0.03302193 0.36845103 -0.053507905 -0.45082527 -0.17031623 0.2649054 0.342757 0.20760702 -0.35421732 0.2957004 0.32603356 -0.25436312 -0.012138716 -0.18574946 -0.21060815 -0.35050228 0.64335895 0.15942174
39 -0.11786272 -0.2897142 -0.25399438 0.5318853 0.2548904 -0.68964225 0.24712445 -0.24454007 -0.24635364 -0.012098348 -0.3275546 0.257854 0.028390368 -0.23641555 0.4622111 -0.03027015 -0.2955965 -0.34298992 0.09716056 0.8228918 0.6149434 0.15451461 -0.3553245 -0.07373463 0.1341841 -0.15776946 -0.36514243 0.14851482 -0.3816284 0.29546136 -0.036817875 -0.24284361 -0.34298378 -0.08127674 -0.25516406 -0.31641895 0.049147215 0.048603907 -0.50236154 -0.16228095 -0.019139994 -0.06303312 0.30284575 -0.3193674 -0.27562737 -0.3635181 -0.07606318 0.26435685 0.16155992 -0.09970792 -0.47799355 0.2017154 0.24176286 0.5549955 -0.07671835 -0.02574503 0.20454699 -0.47327444 0.19740519 -0.16368775 -0.45596176 0.02675341 0.68799883 0.3183599
11 -0.12627535 -0.0042142705 0.040942483 -0.17547667 0.27126256 -0.095540576 0.24243602 0.24572787 -0.7627319 -0.049014248 -0.13640222 -0.44408038 0.6106982 -0.30456153 0.12613901 -0.24538068 0.25863642 5.9259546e-05 0.17874163 0.6876065 0.5474115 -0.13459662 -0.18114915 0.49823865 -0.4527683 -0.31658792 -0.543679 -0.00078159245 -0.4803685 -0.004986062 -0.0055040666 0.022556867 0.25656354 -0.14897346 -0.30588576 -0.32030264 0.18536939 -0.09729814 -0.8735733 -0.23227185 0.1408849 0.0017582676 -0.06293477 -0.22213863 0.0982392 -0.11872725 -0.6916365 0.35907936 -0.041752934 -0.29361847 -0.24877724 0.4588226 0.05735454 0.0046285884 0.09922216 -0.1957469 0.16879924 0.22579397 -0.35426688 -0.06476234 -0.5012338 -0.059916534 0.5999163 -0.032862242
18 -0.36646247 -0.0558161 -0.32282096 -0.19767082 0.33097368 -0.23989868 0.19491874 0.35340297 -0.2663671 -0.03693701 0.51178414 -0.5021009 0.6457245 0.10463692 0.3209378 0.015010146 0.17405987 0.08533793 0.12827018 0.43673092 0.49016675 0.07248417 -0.020993879 0.62484777 -0.058452312 -0.07954325 -0.6226027 0.17302793 -0.3255234 0.013089139 -0.0542029 -0.05459305 0.07940885 -0.021463446 -0.43158987 -0.17052229 0.063600905 0.17236993 -0.6877015 -0.5399613 -0.033564404 0.11450647 0.13796952 -0.44737417 -0.19851194 0.05018335 -0.71305645 0.22610158 -0.015167203 -0.18763018 -0.1786809 0.23544006 -0.04675006 0.15821944 0.33880764 0.30463243 0.18952452 0.25776684 -0.37800565 -0.06624051 -0.19587113 -0.23498142 0.68893987 0.008041492
8 -0.119620696 0.085285425 -0.15615055 -0.13437834 0.28926468 -0.12375926 0.31906378 0.47814268 -0.7624146 -0.13089985 -0.24664648 -0.5954368 0.5583995 -0.3373705 0.09371649 -0.077009246 0.26652622 0.15750201 0.20364611 0.56191295 0.49812517 0.058436867 -0.05409703 0.44613993 -0.3898975 -0.31988597 -0.33701488 -0.07120514 -0.8518981 0.05695085 -0.010479408 -0.09453525 0.30800232 0.074273884 -0.10589975 -0.34654298 0.16509911 -0.18716922 -0.9419593 -0.19852263 0.38190946 -0.087056 0.022341942 -0.2948542 -0.17699118 -0.27175903 -0.264021 0.40272024 -0.20692733 -0.4764712 -0.4145402 0.46536624 0.25709715 0.16667473 -0.0099685835 -0.2455763 0.14124092 0.06547312 -0.30277267 -0.23816496 -0.56690615 -0.024443952 0.66889286 0.019316537
50 0.09552618 -0.7091899 -0.086580046 0.2902151 -0.000616497 -0.3313222 -0.0049278634 0.10802596 -0.24345382 0.16845547 -0.28244674 -0.25836065 0.26783904 -0.57085246 0.29624256 0.2371265 -0.1664798 0.03316791 -0.18286029 0.8090799 0.91641396 0.022367755 0.007897564 0.26660562 0.19309542 0.20217755 -0.97982943 -0.10562573 -0.20346318 0.18000895 0.31126004 -0.064206384 0.07597308 -0.025955461 -0.11213963 -0.48784438 0.25861093 0.098267965 -0.2768143 -0.25045744 0.05156625 -0.19395432 0.23559426 -0.2624602 -0.21814173 -0.28620622 -0.06727432 0.21475811 0.23890609 -0.46752453 -0.25242284 0.20494513 0.17909898 0.12019602 -0.48891208 0.22629616 0.2603357 -0.34041 0.018017909 -0.15088028 -0.14132969 -0.24994332 0.4955117 0.28022927
23 -0.41031927 -0.1349792 -0.43860123 -0.060159087 0.65316904 -0.42012957 0.24490593 0.24420883 -0.26029828 0.18607488 0.41074178 0.05977721 0.49408692 0.2886434 0.167744 0.08420703 0.1313079 -0.20155188 0.14055996 0.3765358 0.32443693 0.017963788 0.11502898 0.33109587 -0.050267227 0.002805555 -0.53837955 0.11133375 -0.40133196 -0.322729 0.05489324 -0.04384486 0.14870588 -0.06866562 -0.70622194 -0.080570355 0.24687932 0.06329054 -0.7108805 -0.41303143 -0.13296479 0.08199619 0.060056213 -0.2642717 -0.1450872 -0.03648117 -0.79395676 0.39089948 -0.08403038 -0.0049397764 -0.32246953 0.31433097 -0.17106201 0.16981073 0.3064833 0.14669374 0.18158971 -0.3436717 0.043173164 0.19743583 -0.42003077 -0.18737371 0.8447362 0.15633643
28 -0.08911291 -0.10011002 -0.19136453 0.059954915 0.33049506 -0.49527937 0.29961967 0.05192985 -0.09106472 0.15110897 0.2535105 0.33433762 0.36337402 0.29991496 0.3320139 0.07649639 0.024645235 -0.37455288 0.17662784 0.2752181 0.53772205 0.41080657 -0.123070806 0.026231606 -0.021902874 -0.1951491 -0.5146009 0.261916 -0.24179436 0.051745407 -0.06616802 -0.34968263 -0.02144787 0.016852193 -0.79118854 -0.10218883 -0.11821055 -0.0031381762 -0.6182456 -0.36292222 -0.16082042 0.21922226 0.25185883 -0.571605 -0.26863322 -0.22028853 -0.7998356 0.22406912 0.09980312 0.31283787 -0.19797006 0.31331065 -0.21933948 0.47499967 0.20438755 0.121740595 -0.0098935645 -0.33758947 -0.025333624 0.10148413 -0.4629827 -0.13758734 0.8849142 0.16404198
30 -0.13676988 -0.025494212 -0.4719303 0.17043385 0.23662136 -0.682429 0.33374327 0.07937128 -0.031046614 -0.05067855 0.19411007 0.22421402 0.21389927 0.34435734 0.29128218 0.043134008 -0.0016198275 -0.34403574 0.19361877 0.33557415 0.46761325 0.47824576 -0.21861675 -0.14629917 0.06584137 -0.092664726 -0.37971976 0.26911962 -0.33015302 0.069647856 0.036101963 -0.34023467 -0.13258861 0.09175361 -0.50591403 -0.14797987 -0.22399545 0.1663399 -0.50749147 -0.3507729 -0.07365713 0.3129442 0.15028344 -0.5287899 -0.31598434 -0.15763459 -0.6414762 0.48762488 0.0038698828 0.20187119 -0.2766922 0.2094729 -0.13335463 0.60562897 0.11403224 0.15334997 0.06694047 -0.41481066 0.0807675 0.055453554 -0.57082945 -0.30482012 0.9435206 0.0577219
20 -0.4131886 -0.021007609 -0.46551964 -0.15651737 0.44759274 -0.108241044 0.22233385 0.57226324 -0.30221984 0.12233972 0.35413796 -0.22700289 0.6147965 0.17148194 0.18466441 0.051859405 0.18167995 -0.029456241 -0.016972568 0.45191097 0.3306169 0.058333773 0.06313917 0.5589124 -0.09569983 0.083669946 -0.7200003 0.34629712 -0.33042362 -0.09668325 -0.036171917 -0.043290656 0.01083992 -0.108262815 -0.587157 -0.13007283 0.18212299 0.22170933 -0.5750215 -0.535551 -0.1818474 0.13277188 0.11600333 -0.31894106 -0.0816186 -0.052623924 -0.64046556 0.41270146 0.06796134 -0.030020205 -0.2889595 0.2864099 -0.1550617 0.20009935 0.27671072 0.27794117 0.04627547 0.034020033 -0.21354173 -0.060308326 -0.29770175 -0.3077804 0.7953087 0.052689288
29 -0.083305106 -0.08537647 -0.29799646 0.2984248 0.24821244 -0.48394486 0.4355299 0.05895033 -0.05722018 0.08572231 0.20049265 0.2993189 0.27474436 0.26076028 0.28270182 0.117240526 -0.028465027 -0.33945164 0.18320145 0.22321737 0.415098 0.3524187 -0.20960112 0.057647552 0.10487801 -0.10160671 -0.509668 0.3729086 -0.26602802 -0.022722665 0.0013612286 -0.21319373 -0.2563208 -0.02738273 -0.56262016 0.0025602325 -0.17148846 0.10143224 -0.6166454 -0.34244975 0.005995579 0.083522476 0.13485704 -0.54472923 -0.32218453 -0.09582909 -0.79939944 0.33824778 -0.04163415 0.08571241 -0.3083079 0.25439286 -0.36173072 0.66035366 0.26649347 0.26504287 -0.02032054 -0.2883859 0.12830855 0.05459207 -0.72216153 -0.046964247 0.8594376 0.27302623
19 -0.43420193 -0.028216178 -0.35790548 -0.10953998 0.38556448 -0.096402965 0.36621317 0.348476 -0.27660018 0.016556233 0.25070074 -0.39555863 0.6871701 0.09842805 0.12197956 0.05053223 0.16371733 0.14340842 0.13642238 0.42384753 0.45137715 -0.06981468 0.031140544 0.56174654 -0.061840925 0.03004992 -0.6579144 -0.035729382 -0.25337636 -0.11663582 -0.014402355 -0.0155826155 0.07403493 0.004865681 -0.69159573 0.09604864 0.116728246 0.1831784 -0.5963403 -0.43546999 -0.038682353 0.1169087 0.025669323 -0.39012304 -0.1980277 -0.17343085 -0.687893 0.29802442 -0.09443917 0.040372685 -0.13841715 0.36362666 -0.11323859 0.30145413 0.29274023 0.29099965 0.13882913 0.082346715 -0.28284484 -0.15487202 -0.2192951 -0.39896607 0.81459934 -0.018361697
38 0.094073676 -0.06277623 -0.17357232 0.41400257 0.25906193 -0.78565973 0.26492023 -0.1527532 -0.2561663 -0.024438748 -0.20116019 0.27602044 0.10392631 -0.23682116 0.24157862 0.14633825 -0.2593395 -0.36688346 -0.07995132 0.788045 0.59062666 0.03235335 -0.19778025 -0.19409586 0.1257124 -0.20782582 -0.38122138 0.08248051 -0.4364603 0.20199989 -0.20087217 -0.31117004 -0.30796048 -0.008180061 -0.39849192 -0.3951043 0.02031707 0.09323462 -0.3505317 -0.21572533 -0.08315893 0.0013868298 0.2746396 -0.21404809 -0.17113617 -0.22959217 -0.14730336 0.3057181 0.091579236 -0.20770834 -0.41412824 0.2815956 0.131096 0.6666971 -0.1573081 0.010040482 0.15833731 -0.5456924 0.06472937 0.08672593 -0.6679585 -0.04110052 0.749914 0.42574865
9 -0.16464859 0.08798989 -0.19325608 -0.25892732 0.38170362 -0.0028196648 0.2475224 0.31868446 -0.82227784 -0.14638364 -0.28792924 -0.44077426 0.55717826 -0.3567918 0.1371649 -0.14151822 0.21979056 -0.029277762 0.247933 0.68331605 0.6389731 -0.049726106 -0.029831592 0.43955815 -0.19377609 -0.3697737 -0.38915163 -0.122740164 -0.58321244 0.12492827 -0.008061249 0.027836991 0.33654347 -0.047794156 -0.1723816 -0.2522741 0.14980428 -0.030171659 -0.9021237 -0.3154499 0.26378062 -0.15681215 -0.026589276 -0.22409293 -0.09640846 -0.12800968 -0.5412579 0.39348608 -0.17782852 -0.31192064 -0.56790876 0.49649096 0.28313947 0.08633203 -0.034882266 -0.20419803 0.013749845 0.1606601 -0.517008 -0.1213194 -0.5345536 0.021426445 0.46285266 0.07279213
10 0.017357446 0.12149974 -0.12994789 -0.018866813 0.46446723 -0.027234523 0.23574802 0.30188093 -0.7874125 0.03221151 -0.16766584 -0.51797867 0.7388531 -0.22517729 0.038661152 -0.12947324 0.33953917 0.1396501 0.20365144 0.624807 0.68260455 -0.077490725 -0.011498167 0.5257791 -0.27549732 -0.35916367 -0.44961566 0.05911007 -0.5459856 0.012781371 -0.0153032895 -0.022052668 0.21343021 -0.039422747 -0.097468175 -0.25344104 0.26359278 -0.04062347 -1.0249751 -0.16131309 0.16990307 0.11586857 0.04565455 -0.20561372 -0.09573263 -0.1074405 -0.4316553 0.23236956 -0.19071448 -0.31820673 -0.38098955 0.3394253 0.17786127 0.16083232 -0.08091985 -0.26739734 0.077537164 0.23553398 -0.37855256 -0.10599922 -0.47475925 -0.0070029497 0.6464254 -0.016574716
37 -0.16709055 -0.15424027 -0.17431967 0.51769906 0.13693316 -0.512274 0.40211096 -0.086472504 -0.3082629 0.00079742377 -0.15422678 0.28937924 0.14298046 -0.20933752 0.2477051 0.20737624 -0.24684028 -0.41203368 -0.008233583 0.75001705 0.53466403 0.14575309 -0.2975379 -0.171403 0.17279486 -0.30703536 -0.2604127 0.13853267 -0.42526862 0.15021408 0.078273 -0.21614495 -0.2833847 -0.16967218 -0.48663753 -0.5073595 0.10004191 0.19436604 -0.41397914 -0.15873201 -0.06815628 -0.012568137 0.25760466 -0.43666777 -0.10969722 -0.21868448 -0.10818911 0.30555063 -0.028703794 0.081936665 -0.46564284 0.16399986 0.1351454 0.5629607 -0.16304527 0.02018453 0.19402723 -0.6109744 0.2018543 -0.042501073 -0.64166045 -0.023708614 0.83697987 0.3250989
21 -0.36767375 -0.16019616 -0.3699026 0.018512717 0.51718193 -0.059588805 0.21779169 0.43745402 -0.24627237 0.039187893 0.44252697 -0.1635118 0.68570346 0.21029358 0.15584423 0.0054891105 0.19875291 -0.030039167 0.1956985 0.4552817 0.34200445 -0.016224658 -0.022065299 0.43794873 -0.0040987013 0.017100217 -0.5740512 -0.01605083 -0.44236207 -0.24223006 -0.07174329 0.0032454317 -0.07091956 0.0023438872 -0.59128976 0.013637913 0.16863151 0.17810132 -0.6414378 -0.5295972 -0.020959357 0.08976827 0.15649281 -0.32866642 -0.10920154 -0.07520676 -0.86845016 0.42788923 0.064076826 0.040088985 -0.20192865 0.13111098 -0.08125812 0.21268 0.2508138 0.2470739 0.19156282 -0.24405438 -0.23330472 0.17508209 -0.2497138 -0.31025326 0.84191424 0.059266288
31 -0.14564045 -0.01890054 -0.44717342 0.12993951 0.28228432 -0.5889057 0.4239822 0.13967544 -0.0646929 -0.1514498 0.2797092 0.32128063 0.20541772 0.14668447 0.4261745 0.11124185 -0.12401045 -0.3666792 0.16939814 0.4322733 0.3254882 0.37212762 -0.3751719 -0.10258862 0.19058348 -0.08111717 -0.34309042 0.40936664 -0.36061966 0.06492358 0.013327072 -0.41329667 -0.28395644 0.12792136 -0.538753 -0.17450733 -0.138443 0.005215267 -0.5212327 -0.27116963 0.063839585 -0.09071693 0.17918704 -0.4589024 -0.32312337 -0.18872246 -0.591064 0.22485718 -0.116381206 0.1369962 -0.26644874 0.40964487 -0.25146475 0.66879165 0.01584988 0.26619184 0.01683762 -0.399915 0.094448715 0.05606415 -0.48973414 -0.21338525 0.9386508 0.17645815
36 -0.084723845 -0.09259046 -0.26897177 0.3538485 0.36649966 -0.55039465 0.40010843 0.026857695 -0.13307075 -0.043866318 -0.05729584 0.29437536 0.16869807 -0.2098976 0.22309664 0.20071365 -0.25021148 -0.6075128 0.06923507 0.74917674 0.40705565 0.17638235 -0.2077092 -0.23640166 0.1017414 -0.32752967 -0.44306302 0.1718569 -0.25001547 0.030145451 -0.22127506 -0.32004556 -0.34283718 -0.10528744 -0.35561046 -0.3958727 -0.058314763 0.12191728 -0.55536795 -0.15824685 -0.123874664 -0.062591575 0.12550889 -0.49018344 -0.15583254 -0.35994515 -0.26283336 0.32784608 -0.0017487451 -0.16030279 -0.3163453 0.16463631 0.17539783 0.660622 -0.19380304 0.053114187 0.1401892 -0.6373662 0.12953486 -0.1077984 -0.52468395 -0.1276868 0.7136456 0.40866747
22 -0.2667103 -0.09192462 -0.47091633 0.016877057 0.6150348 -0.2236154 0.36920425 0.40119454 -0.2057086 0.017774943 0.5244076 -0.03735629 0.6479882 0.1807213 0.102818415 0.08383917 0.009713476 -0.04026801 0.015862577 0.3663132 0.33652455 0.029119914 0.0111407265 0.3521645 -0.1365347 0.017227598 -0.43745315 0.21314412 -0.29659247 -0.1574744 0.119184956 0.022742292 0.02612557 -0.13532269 -0.64377296 -0.0751405 0.1919378 0.22247298 -0.5483454 -0.5138287 -0.07917741 0.20088582 0.07976491 -0.32415393 -0.06526864 -0.35988423 -0.8547603 0.26947206 0.09945759 -0.0725044 -0.41682506 0.42643237 -0.03919239 0.20432328 0.37594357 0.14393167 0.18722169 -0.24882264 -0.13352779 0.121688925 -0.36957583 -0.2505983 0.8367483 0.05221727
48 0.10698813 -0.64240414 -0.024698472 0.4124927 0.07439216 -0.34637722 0.1553735 0.044058833 -0.26534745 -0.07599894 -0.28801325 -0.16531523 0.21823144 -0.5086765 0.31961885 0.17189026 -0.19644912 0.101246625 -0.19128871 0.89299047 0.84682715 -0.25823858 -0.17705782 -0.047775064 0.28402752 0.14361729 -0.9071061 0.092502564 -0.29089716 0.0974139 0.11372939 -0.16979975 -0.103504024 -0.0058487053 -0.066308394 -0.6634306 0.13784494 0.20249848 -0.3016253 -0.31363374 0.052611697 -0.21390457 0.12549424 -0.15411744 -0.34434974 -0.17374177 0.013066933 0.42396387 0.024857031 -0.39845225 -0.3636884 0.28008056 0.26589933 0.101459995 -0.29971114 0.19547683 0.25816867 -0.24969979 0.0915067 -0.19590737 -0.05246604 -0.25203466 0.5440477 0.08193041
49 0.14803925 -0.47663757 -0.16821717 0.32080454 0.07185047 -0.3172406 -0.084164314 -0.05328072 -0.19937287 0.076236166 -0.24636355 -0.37459797 0.09868478 -0.58966744 0.3186202 0.29905143 -0.22543597 0.20429994 -0.1966516 0.8019813 0.7636887 -0.15995829 -0.18083201 0.043373518 0.3441091 0.121004894 -0.98926437 0.058643684 -0.19796944 0.2030587 0.22114004 -0.28252566 0.05306857 -0.19123152 -0.103483036 -0.48473012 0.2942222 0.19510944 -0.39666566 -0.17327714 0.11815946 -0.22414558 0.2625528 -0.15078282 -0.16604008 -0.30609468 -0.039507035 0.40788826 0.16937089 -0.4135829 -0.29970807 0.18973272 0.30191824 0.08335086 -0.23788501 0.19297893 0.38804176 -0.3744793 -0.120942794 -0.2154375 -0.19475344 -0.34895986 0.57699215 0.19686869
32 -0.17350872 0.08580325 -0.52179646 0.23731041 0.34551066 -0.53775024 0.509938 0.061204776 -0.13723032 -0.13941869 0.0144451605 0.1963821 0.11515137 0.19637679 0.3315354 0.30644813 0.024141863 -0.34636322 0.145472 0.53813833 0.32012004 0.42210853 -0.12481601 -0.31736416 0.17953756 -0.09356229 -0.35798573 0.2877288 -0.36483595 0.14430876 0.010311899 -0.29318446 -0.3093509 0.16406213 -0.54524446 -0.21407254 -0.11944584 0.039668094 -0.55003905 -0.37337437 -0.012322656 0.086166926 0.11117905 -0.6279808 -0.34363708 -0.16877185 -0.550648 0.3651927 -0.02656647 0.01787741 -0.23894525 0.22686857 0.019170957 0.5971474 0.05721439 0.3946302 -0.04509849 -0.41216594 0.20156333 -0.07047711 -0.4983665 -0.18243803 0.8576803 0.25040066
35 -0.1324249 0.036617026 -0.20973104 0.41865003 0.260868 -0.51897633 0.54101074 -0.013962368 -0.20244725 -0.0510495 -0.08409416 0.19394092 0.16060762 -0.008345065 0.20660968 0.12691511 -0.015498686 -0.45198268 0.05970279 0.80116993 0.3402722 0.13755864 -0.30233312 -0.24514458 0.1530323 -0.30341336 -0.25860584 0.2715129 -0.21788661 0.03275706 0.12139968 -0.33387676 -0.36737555 0.03153804 -0.52094764 -0.41359586 -0.020410324 0.07981263 -0.6014213 -0.36204043 -0.08322174 0.0394652 0.3392622 -0.48274133 -0.19875209 -0.21586096 -0.17532691 0.3264731 0.035956834 -0.06597579 -0.31240553 0.3094499 0.072039336 0.55374813 -0.24602094 0.28587082 0.06502492 -0.7535647 0.02483994 -0.011141708 -0.5348086 -0.112630375 0.77215844 0.4295925
34 -0.16681024 0.042191472 -0.44327882 0.25209764 0.2959323 -0.47799826 0.4443146 0.048124667 -0.16518442 -0.22715746 0.037105363 0.2570205 0.20139466 -0.0039249207 0.098206446 0.270613 0.020359786 -0.48781103 0.18317246 0.81084496 0.3046547 0.29795936 -0.21517274 -0.2748713 0.218875 -0.39619243 -0.41141054 0.23691727 -0.2907068 0.122109376 0.037079237 -0.4070396 -0.3064536 -0.010704531 -0.41330904 -0.40433046 -0.020045843 0.06446159 -0.45683643 -0.2960015 -0.03666459 -0.11769522 0.07448875 -0.5232244 -0.2444736 -0.31001204 -0.26901174 0.19670092 0.0076243286 0.006631785 -0.23149325 0.17728956 0.0002714752 0.6624769 -0.07555148 0.24769303 0.08598985 -0.52357477 0.15234897 -0.016083557 -0.55835325 -0.31672767 0.90651494 0.35341552
33 -0.19693036 0.06515468 -0.51262057 0.20429951 0.3131031 -0.4997563 0.4484458 0.14443175 -0.03287481 -0.23990512 0.05933416 0.27427098 0.058127478 0.18711326 0.3533232 0.19875787 0.049630366 -0.31484935 0.09654696 0.60061187 0.31909123 0.23100634 -0.23662205 -0.18813702 0.26448068 -0.21100602 -0.3587458 0.21186948 -0.23115997 -0.023731507 0.06622019 -0.33579165 -0.30666822 0.010818552 -0.51510996 -0.40730515 -0.2579327 0.07935584 -0.5864432 -0.2362531 -0.10290985 -0.008408282 0.18616055 -0.5724407 -0.32350126 -0.20439349 -0.4202344 0.27813628 -0.1460143 0.027493905 -0.33908364 0.33851805 -0.0011301714 0.726548 -0.19723381 0.15551701 0.13482603 -0.57374096 -0.007903807 -0.14337513 -0.55700076 -0.14406373 0.90033513 0.31543636
63 0.2308053 -0.7728919 -0.45394516 0.36205992 0.20808259 0.012338323 0.0065275095 0.24915786 -0.42736468 0.013607683 -0.052090764 -0.21466565 0.33406392 -0.15082158 0.37636402 0.45086238 -0.08014307 -0.35748413 -0.12885968 -0.07565371 0.772707 0.17481369 0.037821643 0.014681946 0.39335188 -0.010600926 -1.067176 -0.07983007 -0.13080887 -0.12402757 0.48221204 -0.4010082 0.65023845 0.22176242 -0.13849033 -0.55146474 0.123130515 -0.09136262 -0.98672223 -0.24786857 0.7612551 0.09859952 0.05896522 -0.6051879 -0.18565705 -0.615711 -0.3373746 0.63141394 0.19179969 -0.36473346 -0.18490854 0.69879484 -0.3316586 0.04036981 -0.5158325 0.3420004 0.101416655 0.010496266 -0.08530812 0.29417378 -0.5769631 -0.20816392 0.5321 -0.11631645
1 -0.07774538 0.1918496 0.20881641 -0.13772608 -0.15396452 -0.4794036 0.12750427 0.6750188 -0.5687399 -0.019627554 -0.44661933 -0.44488078 0.582935 -0.33679798 0.13505004 -0.2969702 0.16133428 0.09978138 0.084746905 0.4218146 0.91626304 0.46679667 -0.049370307 -0.28974998 -0.32386613 -0.4710928 -0.4686451 0.055260304 -0.5334754 0.3065022 0.0815159 -0.27180174 0.07479003 0.17819907 -0.114710994 -0.15736721 0.16573288 -0.2676624 -1.1554648 -0.00023909046 0.71945935 -0.39689434 -0.048395813 -0.5459923 -0.29398096 -0.23698656 -0.34176454 0.39740083 -0.3083483 -0.39837256 -0.617515 0.36829025 0.2025487 0.25227824 -0.21792334 -0.09365893 -0.19921935 0.16915481 -0.49213833 -0.35962775 -0.8043478 -0.07080126 0.75698674 0.25114122
