28 64
28 0.22243932 0.103266865 0.06744716 0.17973387 -0.021081382 0.12696561 0.17018624 0.34897634 -0.21595418 0.41477978 -0.36271483 -0.14214349 0.3544437 -0.28563666 0.080330424 -0.22824849 0.40938333 0.34148106 0.14485237 0.15025441 -0.24944745 -0.0490053 0.04991492 0.436954 -0.108851105 -0.23910552 -0.061460495 -0.25204426 0.22973537 -0.2804308 -0.12455911 -0.23537192 -0.07990955 0.18264039 -0.06369957 0.5406701 0.16158809 -0.007965396 0.39242482 0.4390115 0.4568832 -0.23243567 0.1273189 0.10845452 -0.20422062 -0.34697473 0.1919162 0.08597015 -0.35172734 -0.045586858 -0.07531713 0.2047942 0.25391582 0.060230035 -0.27874905 0.21584253 0.7960966 0.02317692 -0.32595888 0.09813676 -0.16232982 0.027307853 0.11321994 0.09953087
27 -0.21089679 0.44929326 -0.1634931 0.05128742 0.08106407 -0.18258029 0.16440351 0.47337905 -0.26627946 0.15311854 -0.18147719 0.4876715 -0.07454106 0.2653171 0.18859372 0.4863269 -0.046528336 0.30777726 0.03335139 -0.034705255 0.21664599 0.13294216 0.29753235 0.044622693 0.12291663 -0.008564857 0.32996795 0.35488144 0.025607385 -0.15605722 -0.44298822 -0.5216216 0.16653526 -0.08193404 0.21874855 -0.032924328 0.51690084 -0.25915402 -0.056014214 -0.32300365 -0.04365087 0.19750501 0.096401006 0.20032935 -0.047732327 0.69210255 0.1895463 0.02217453 0.06655561 0.17771007 -0.14718093 -0.5337927 -0.13662118 0.19260688 0.046763886 0.26323017 0.025483413 -0.2912294 -0.10013191 -0.34207395 0.09640709 -0.12521009 0.11520347 -0.3198106
26 0.25812685 0.030533623 -0.5814093 0.019572562 0.56925845 0.07715273 -0.03118786 0.056577493 -0.26728284 -0.27632555 0.16804393 -0.28769556 0.34744105 0.0021843275 0.2858624 -0.013711691 -0.17492199 0.09253488 0.20241314 0.50849515 0.040666983 0.03186908 -0.080523185 -0.21068944 -0.13769545 0.020659441 0.1396767 0.086297475 0.30067584 0.18206802 -0.24415536 -0.26019612 -0.006660252 -0.45444074 -0.36412698 0.28983054 -0.33398172 -0.08182686 0.23174033 0.29794452 0.15964496 0.03150677 -0.036560383 -0.37909642 0.056087684 0.0068583246 -0.051859844 -0.7426117 0.44453573 0.088235244 -0.06130931 -0.11501636 0.3232726 -0.21971974 0.17638586 -0.3687574 -0.25247082 -0.20175058 0.5360337 -0.19529562 -0.06874715 -0.20646168 -0.24612981 -0.11005286
25 0.27790454 -0.5109904 -0.106295936 -0.18499582 -0.16776702 -0.16256708 -0.19029205 0.07035552 0.06868096 0.14233553 -0.19163775 0.028420892 -0.17825761 0.1261504 0.1409415 0.06819987 -0.06280745 0.17196892 -0.015298845 0.20439075 0.16767368 -0.011774055 -0.06233946 0.21715653 -0.054754604 0.7588312 -0.37781778 -0.23515503 0.014752277 -0.29007974 0.18046267 -0.29778054 -0.042467855 -0.004131453 0.19672854 -0.20959003 0.106315024 0.4320142 0.45710215 -0.14512035 -0.15063235 0.25729048 0.16445257 -0.28914762 -0.3262326 -0.26788533 0.117526144 -0.36043888 -0.2461522 -0.48849407 0.5427909 -0.03608277 -0.23632845 0.77666754 0.24732539 0.21324492 -0.16092467 -0.17264009 0.040273715 -0.12401999 0.034356598 -0.32147342 -0.31045315 -0.20404662
24 -0.022556255 -0.19379982 -0.09176434 0.01069924 0.2026641 -0.28520924 -0.011374515 0.40221584 0.09849687 0.04200149 -0.1453068 0.07408315 0.2673923 0.3205934 -0.07442991 0.38168147 -0.044077963 -0.021869516 0.031708784 -0.22610109 0.3923902 -0.5214541 0.2879931 0.024229174 0.29876295 -0.053236417 -0.17995322 -0.36146697 -0.11768973 -0.22594544 0.1947241 0.38859 0.12442442 0.31989262 0.10870927 -0.21404374 -0.0883454 -0.25291264 -0.10088984 -0.28402367 0.49743643 -0.26090133 0.5095373 0.023814606 -0.22107768 -0.44965792 -0.32844523 0.05624151 0.45494342 -0.067457706 -0.12741643 0.0024870725 0.30349776 -0.5852182 0.3087327 0.3540729 0.13727033 -0.09493609 0.15426718 -0.3088352 0.27380168 -0.2136132 -0.57479393 0.086445816
23 -0.27914694 0.13412441 -0.8203782 -0.17801309 -0.081032954 0.39891034 0.16764647 -0.02352077 -0.6552485 0.0676542 -0.29180688 0.06441528 -0.16347268 0.064551756 0.46990642 0.096519925 0.7380533 -0.44034973 -0.0023893656 0.20195954 -0.43086377 -0.033271518 -0.27300826 -0.0029239333 -0.01273032 0.0033336822 -0.020877052 0.013561042 -0.48753542 -0.50954247 0.07709683 0.033699192 -0.2301038 0.07747024 -0.000987329 0.015377991 -0.03696715 0.19794385 -0.1033841 -0.17839755 -0.12875772 0.03432736 0.37814555 0.26158318 -0.055008527 0.10105873 0.09705629 0.20062563 -0.038255196 0.0006146136 0.121122934 0.3054104 0.237512 0.06997495 -0.06608613 0.06947127 -0.2723401 0.23258975 0.50615335 -0.1999273 0.30799973 0.17070723 -0.21418463 0.24649963
22 -0.046902213 0.45939776 -0.31838593 0.1780967 -0.4771721 -0.23619525 0.11148072 0.47512537 0.24105822 -0.07916618 0.25347537 0.3330621 0.22242416 -0.26356995 -0.022005135 -0.020602558 0.19322325 0.2977072 -0.32294494 0.44329214 -0.122304305 -0.026597187 0.10179506 0.11013795 -0.048587136 -0.08842348 0.22790818 0.009150132 0.3254582 0.25763786 0.15273215 0.49998245 0.08238004 0.055861887 -0.3646574 -0.5238228 0.31664914 -0.22328179 0.18497188 0.303167 -0.5518895 0.2471387 0.4054159 -0.07503903 0.11677829 -0.18242371 -0.51803946 0.08059367 0.17003138 -0.03719911 0.27946222 0.15741803 0.27069393 0.40424123 -0.106852055 0.03863418 0.25476015 0.33898667 0.3797089 -0.14788564 0.007205812 -0.058735278 -0.04815277 -0.29767996
21 -0.22651869 0.050587926 -0.5254155 0.13221364 -0.010742429 0.18700743 -0.37318128 -0.24749361 0.51162344 -0.087458126 0.08409035 -0.23245479 0.28225082 0.5300538 0.18884219 0.16415358 0.09440207 0.09319004 -0.2622389 0.33212137 -0.12583815 -0.05525709 0.035488814 0.16784097 -0.18262468 -0.08320763 -0.062464617 -0.43118936 -0.4138864 -0.309652 -0.43040663 -0.42303517 0.21155404 -0.19493221 0.03609143 -0.26745418 0.24479237 -0.077637635 -0.17914253 0.32861778 -0.30820394 -0.16845995 -0.34985802 -0.3911708 -0.13338743 -0.093248315 -0.061623972 0.23828326 -0.005064197 -0.065087736 -0.41880742 -0.059399065 0.24858335 0.094339244 0.16309302 0.6526342 0.13898557 -0.33848366 0.01199198 0.5470949 -0.09916015 0.25852314 -0.26570123 -0.11954848
20 -0.34724763 -0.16144633 -0.47887683 0.14122345 0.28589624 0.3025643 0.05977504 -0.22084613 0.06356096 -0.25593683 -0.04203425 0.050973207 0.014793206 0.12820189 -0.41357368 0.12910503 -0.12623863 0.38517264 0.46249428 0.16400787 -0.10131482 0.3123645 0.44653288 0.082766995 -0.09423918 0.2404678 0.39369136 -0.38823575 -0.18110347 0.05296753 0.4331579 0.112996474 0.00554047 0.15615511 -0.037958767 -0.06087942 0.010964614 -0.11878265 -0.098156385 0.16418992 0.20093928 -0.33723983 -0.12523785 0.27970007 0.1871999 -0.0046244995 0.05108304 -0.21185714 -0.3018957 0.12901479 -0.05974667 -0.013666143 0.48264825 0.69471043 0.2516359 -0.024547942 0.30354583 -0.24904004 0.07021191 -0.42056674 0.6805024 -0.3303707 0.36598477 0.23218004
19 -0.39272407 0.06548364 -0.47833294 0.32486412 0.12108091 -0.037075862 0.25856334 0.13729645 0.22182752 0.29530331 0.17929445 0.053105414 0.9021383 -0.1952959 0.0018631647 0.18901615 0.10769892 0.13114692 -0.3841363 -0.21190369 -0.11482346 0.10940458 0.023530731 -0.3355181 0.03485371 0.012621332 0.053332917 0.29695332 -0.2960158 -0.11107704 0.20964329 -0.14264448 -0.9178864 -0.025116187 0.03846907 0.022165757 -0.20317185 -0.21597989 0.39983484 -0.018154807 0.11718476 -0.040300403 0.009638157 -0.17564906 -0.13852638 -0.08142353 0.32473764 -0.02116081 0.26275644 -0.0077320524 0.21123193 -0.044136774 -0.5973941 0.22361778 0.41899064 0.024782196 0.2100126 0.02435799 -0.10742306 0.27804327 0.17175406 -0.31555632 -0.11816708 0.13349569
18 0.116991095 0.14441957 -0.2692239 0.05339155 0.17536847 -0.07915428 0.047158856 0.03738724 0.1592726 0.42389128 -0.033430718 -0.2971213 0.07052586 -0.23533617 0.52487296 0.42056385 -0.07133597 -0.028054442 -0.19131479 0.5864457 0.58984244 0.16853632 -0.046368845 -0.19252853 -0.20537205 -0.1952207 -0.33615062 -0.24439283 0.12387942 0.0028388859 -0.24824807 0.33130634 0.072059184 0.1854386 -0.1462649 0.23830462 0.16118698 0.14028507 -0.4035781 0.39553246 0.17765458 0.16590461 0.024655491 0.05574492 -0.4326406 0.6826487 -0.26336828 -0.17704557 -0.04450438 -0.3296059 0.10465457 0.31519243 0.034294862 0.082865395 0.2507637 0.33223295 -0.11692581 0.23836723 -0.34724477 -0.14085257 0.37211096 -0.31536025 0.20488979 0.37312123
17 -0.036685284 -0.36432597 -0.5279313 0.25956246 -0.15107465 -0.3024389 -0.14615427 0.5501725 -0.07803759 -0.038532 -0.29844633 -0.48821095 0.5551671 -0.24723297 0.3241357 0.06309373 0.17815398 0.19853547 0.5407723 0.044613466 0.3046852 0.12747878 0.30798298 0.2606117 0.32519114 0.3510614 -0.11449693 -0.13355973 0.12665828 -0.036388796 0.011429414 0.43240798 0.14570685 -0.019863524 -0.19727564 0.2887449 0.067141935 0.27784023 0.08440569 -0.35082048 -0.12655158 0.14659336 -0.13072799 -0.2163519 0.30549338 0.00015019083 0.102113105 0.3017091 0.104955666 0.61165684 -0.3153219 0.021637945 -0.06744577 0.3500714 0.020948406 0.10144936 -0.32247725 0.09468466 -0.0929541 0.18392128 0.176766 0.3942403 -0.071408495 -0.14190875
16 -0.5267694 -0.14257757 -0.42210543 -0.3908048 0.19427614 -0.111210056 -0.2432571 0.19090615 0.24197353 -0.011882228 -0.29577687 0.57957363 0.09307767 -0.07733867 -0.0792732 -0.11438938 0.008131345 0.43072802 -0.03918798 -0.00089299947 -0.22491837 -0.02966504 -0.29348403 0.019517818 -0.28967214 0.3076457 -0.091090344 -0.01943635 0.25254256 -0.12815602 -0.20025814 -0.034723204 -0.34487456 0.024873486 0.27649254 0.3501689 0.39956695 0.13975823 0.123394944 0.12596852 0.35194105 0.19729182 -0.09132842 0.23657514 0.7193219 -0.049559206 -0.40392175 -0.4518637 0.48384824 -0.29361826 -0.14366342 -0.055876326 0.20006554 -0.030831648 -0.14575943 0.5744836 -0.15872085 0.11149956 -0.10089098 0.023054108 -0.0051356866 0.12723044 -0.1736556 0.313383
15 -0.22956322 -0.083340965 -0.18403025 0.092419215 0.14415695 -0.31751978 0.3279094 -0.26784348 -0.18949151 -0.107669264 0.33097908 0.23488641 -0.2157019 0.09195343 0.2873348 0.30636105 0.089475274 0.15326488 0.40173975 0.47838056 -0.055192698 -0.0230734 0.3168285 0.27549195 0.07819455 0.110137016 -0.110361055 0.15815802 -0.024384601 -0.18036406 0.2277977 -0.30477902 0.3198729 0.6174726 -0.90361226 -0.01455981 0.39287826 -0.15037131 0.31788042 0.07595471 0.24433486 0.16616893 0.004326663 -0.298053 0.33725303 0.121907175 0.2961285 0.079892725 0.13350193 -0.4085092 0.0145796975 0.022008406 -0.30797544 -0.19653809 0.031600185 0.035034698 0.33196437 0.13320369 0.065206565 0.28657332 0.13651395 -0.12267086 -0.44680107 0.26923284
14 0.038460597 -0.36304015 -0.3274544 -0.22481012 0.1468914 0.17130417 -0.046784196 0.61294264 -0.106893234 -0.031373322 0.336834 -0.273012 -0.08390913 0.054919638 0.25584003 0.209569 -0.019398201 -0.46512556 -0.56322443 0.06987344 0.08450308 -0.17550561 0.33138177 0.3094607 0.18917942 0.14841136 0.6023313 -0.07959667 0.36581078 -0.023167372 -0.004262391 0.056260765 -0.3140553 -0.37262774 -0.33364117 -0.22557402 0.24427612 0.24656272 -0.023818286 0.27332795 0.5287504 -0.25610784 0.167773 0.054273058 -0.036425296 -0.004475705 0.26810727 0.05298471 0.20866255 -0.41395515 0.23463576 -0.52423406 0.070682704 0.31208426 -0.22510117 0.29296005 0.24964376 -0.17110279 0.09264632 0.027438154 0.30920205 0.31585798 0.117071815 0.10911276
13 -0.32212272 0.15392767 -0.13731878 0.045971952 0.03790624 -0.11492497 0.17525715 -0.12921607 -0.11378069 0.31646833 -0.13417247 0.46557048 0.56805706 0.048247207 0.35824862 0.5037639 -0.35064545 0.16489148 0.018463684 0.18502173 0.062328573 0.30280808 0.122214854 -0.079698235 0.4146577 0.14443931 -0.13136828 -0.15321782 -0.13392746 0.30055422 0.18052821 -0.18134652 0.2757118 -0.42727673 0.15653597 -0.021488365 -0.24420024 0.3237597 0.23483865 0.06608113 0.36240226 -0.53443193 0.10086084 -0.17020641 -0.091743894 0.335798 0.12670754 0.009105947 -0.03772933 0.09796086 0.40910268 0.34646505 0.5516936 0.21009372 -0.42672133 0.4219359 0.083072476 0.25478306 0.37928703 -0.059488013 -0.24698374 0.18450597 -0.3441679 -0.124195725
12 -0.09785966 -0.03686821 -0.5315536 0.14244768 -0.47630087 -0.11447044 0.26631394 0.34231737 -0.58646023 -0.1956923 0.4065636 -0.023412885 0.0066485642 0.25491765 0.07699353 -0.35872063 -0.17479536 0.24090052 -0.25795418 -0.35623696 0.24276961 0.12034322 -0.0573839 0.16771397 0.0098669855 0.14983362 -0.10770132 -0.18284468 -0.093429305 -0.22703163 -0.16032577 -0.10963748 0.4362384 -0.23085812 0.1393786 0.5819885 0.30737597 -0.2382029 0.19923072 0.24401999 -0.1659034 -0.045597687 -0.11231059 0.20322372 -0.29051468 0.006572866 -0.015354951 -0.12251122 0.58229524 0.008051214 0.3855938 0.42512867 0.21843387 0.15628885 0.23297271 0.071037434 0.22530064 -0.21242173 0.03804479 0.24970856 0.6333152 -0.3183486 -0.20485866 0.15269987
11 -0.089549534 -0.24409813 -0.42605373 -0.089219026 0.24576345 0.046357106 0.20957488 0.40007323 0.39477536 0.68599254 -0.045773637 -0.27049223 -0.24591614 0.08431061 -0.31772187 0.31904858 0.35018426 0.18965372 -0.16163993 0.21139596 0.23900901 0.4198439 -0.2973775 0.22799619 -0.1445738 -0.12845455 -0.020164607 0.0012689304 0.1071451 -0.12708822 0.046532743 -0.32554403 -0.04157599 -0.18402101 -0.38663077 0.22494878 0.32959726 -0.14318496 0.49144974 -0.5979206 -0.17397639 -0.41139674 0.36746672 -0.39810294 0.13834497 0.17254198 -0.38214573 0.18453734 -0.016350461 0.050602574 -0.024395801 0.10861925 0.3476562 0.12897639 0.3869942 -0.11569933 0.1058093 -0.24376518 0.1488624 -0.2565386 -0.018356562 0.06930553 -0.124772064 0.419965
10 -0.48812276 -0.13337347 -0.46090022 0.70102763 0.074170426 -0.34659964 0.07186939 0.20259583 0.18528694 -0.17839593 -0.07013164 0.1140172 -0.046610594 -0.25171053 0.15652263 -0.057851374 0.12373403 0.08449808 -0.252613 0.42277613 0.023326691 -0.3384269 0.25323847 -0.0055019087 0.08519089 -0.14688559 -0.09836931 -0.29730973 0.39126247 -0.50751114 -0.0279935 -0.19242398 0.051210552 0.29605243 0.14085478 0.21103598 -0.0612481 -0.22344482 0.31640428 0.2511229 0.17945653 -0.36988178 0.5259036 0.27608955 0.0335301 0.1897944 0.23437007 0.08500437 -0.20770119 -0.18448915 0.13432378 -0.33920547 0.46552992 0.247818 0.16942002 -0.15202688 -0.7729211 -0.07887007 0.03825123 0.35687724 -0.035050873 -0.24394672 -0.057876747 -0.33832592
9 0.19797106 -0.28500974 -0.27558666 0.019086547 -0.065421954 -0.13828284 -0.053253744 -0.06463139 -0.26909992 0.22107714 -0.3392914 -0.2203585 0.577614 -0.085525885 0.42017734 0.46577898 0.07487909 0.21655017 0.26390037 0.19994725 -0.03949871 0.525647 -0.35310385 0.7690487 -0.1069868 -0.07769413 0.2777684 -0.374446 -0.16347368 0.16161692 -0.058786176 -0.37758833 0.0027337214 0.25136125 0.12642026 -0.47142982 0.11673912 -0.4911484 0.12003651 0.19040737 -0.10658434 -0.2019846 0.5319904 0.1867075 0.08785104 -0.1747154 -0.028549455 -0.334079 0.6352851 -0.15382075 0.10283225 -0.19173548 -0.0696644 0.027535921 -0.052511517 0.31164378 -0.23188122 0.09826502 0.05723197 0.16999836 0.37416366 -0.1740876 0.2533676 0.123326495
8 -0.23158528 -0.3103267 -0.8980773 -0.4465984 0.13726775 -0.10330353 -0.20116623 0.24824639 0.49331078 0.04929682 -0.24547704 0.10680249 0.31676364 0.165686 0.17411937 -0.12967476 0.14458583 0.039931312 0.105 -0.033667892 0.31652042 -0.05091858 -0.36949039 -0.094570994 0.017698804 -0.23649795 0.114067055 0.2770182 0.49816582 0.10980978 0.03669774 -0.10067589 0.3759818 0.45913523 0.03382375 -0.0031267842 0.03778922 0.028213073 0.18204731 0.35599777 -0.05466663 -0.11046326 0.12360749 0.09370891 -0.23800202 0.21536198 0.73709935 -0.040559858 -0.1316495 -0.02802247 -0.25403348 0.31354186 -0.21371375 0.13879402 0.006018438 0.3723461 0.43666422 -0.08526792 0.5659811 -0.28665268 0.3906153 -0.091857925 -0.28045964 -0.25851437
7 0.030988427 -0.024917427 -1.053349 0.3550458 0.028154531 0.34167552 0.3162356 0.08733454 0.15490739 0.357068 -0.46408802 0.13771383 0.2301606 0.19707488 0.417001 0.20885713 0.037052955 0.43977815 -0.19210432 -0.32608327 -0.12946127 0.08475062 0.07273257 -0.08969702 0.20631899 0.008526068 0.31744295 -0.19801651 0.1715844 0.056374494 0.11080812 -0.06953328 0.2874887 0.14287072 -0.6180896 -0.044671796 0.2099628 0.288869 -0.15660663 -0.26003522 0.15221211 0.11409306 -0.21055487 0.22369663 -0.2139634 -0.21121931 -0.3418328 -0.35658804 -0.09854898 -0.33256996 0.21682745 -0.32358393 0.22789116 0.06091141 -0.32802898 -0.2644972 -0.008161892 -0.10934334 -0.5286549 0.13636261 0.041436978 -0.19440322 -0.5554487 -0.094718255
6 -0.14304419 -0.269132 -0.4869135 0.07106981 0.7183038 0.014618549 0.2298354 0.5386928 -0.3014038 -0.08148143 -0.10984902 -0.17078373 -0.032269113 0.040087715 0.124926254 0.3275972 -0.1954385 -0.011503586 -0.3738766 0.7117296 -0.027365679 0.07251767 0.20100899 -0.02160163 -0.41256016 0.28136882 -0.17941828 -0.1327626 -0.28100932 0.18359038 0.28708556 0.15638188 -0.11439929 -0.03561213 0.15222529 0.029039249 0.7606056 0.13367173 0.01600129 0.110947765 -0.34316927 -0.25877833 0.3493259 0.32107335 0.15331826 -0.076619945 0.43714502 -0.20828184 0.24333991 0.5025917 0.009267784 0.091718525 0.09881004 0.043612015 -0.0154546155 0.28031537 0.42455974 0.23244418 -0.27876028 0.19385993 -0.268233 -0.43304187 -0.46885693 -0.16708454
5 -0.031202922 -0.033850055 -0.21516103 0.25381112 -0.27044 -0.20679608 0.3575836 0.7575494 0.14355709 -0.2731705 -0.3331767 0.054633982 0.26778474 0.24737976 0.05702787 0.24189068 0.08809885 0.20199524 0.076691724 0.35156178 0.013149572 0.3771234 0.20460811 -0.07140236 -0.27005738 0.48870873 -0.04665795 -0.10134415 -0.005906095 -0.5578305 0.25246775 -0.2931241 -0.15241589 -0.23535872 -0.38672698 0.031055026 -0.049755137 -0.34061757 -0.22933827 0.45925125 0.27928945 -0.5770102 0.223715 0.16336295 -0.08828171 0.33097023 -0.2933753 -0.26553944 0.13296758 -0.4231121 -0.37951306 0.47458413 -0.48167998 0.3608359 -0.16883826 -0.0030156204 -0.09419893 -0.1823129 0.104837194 -0.14355507 0.23811893 0.46340796 -0.6129417 -0.042044364
4 0.003761115 0.10558297 -0.24229723 -0.11251204 0.018391764 -0.11446852 0.22010648 0.3653712 0.22905965 0.43503734 0.2887896 0.15132192 0.24747692 0.13711789 0.39300686 0.35046297 -0.2342087 0.12752026 0.24720782 0.41395685 -0.42060757 -0.5848333 -0.3727286 0.089631654 -0.040342465 -0.18025701 0.40190783 -0.47149184 0.43743554 -0.29752383 0.51236594 -0.41731662 0.083292805 0.006086551 -0.3390381 0.5737976 -0.0027158353 -0.10867256 -0.3587761 -0.20093025 0.091269895 0.100895315 0.21796545 -0.012999736 0.16963215 -0.013202114 0.110494174 -0.17434849 0.19213359 0.54422575 0.5427435 0.05603634 0.072673336 0.54602396 0.37482873 0.7151259 -0.039826166 -0.088952504 0.024019897 0.21212946 0.42111927 0.023698607 -0.23773362 0.046115525
3 0.06535717 -0.32869294 -0.7199498 -0.17463526 0.13479047 0.10480282 -0.21163762 0.43134895 -0.16361429 0.67223096 -0.38778198 0.2852105 0.05477841 0.14224257 -0.26385224 0.5462338 0.10980671 0.5690066 -0.35660607 0.20591757 0.39171132 -0.3107077 0.5093918 0.2139252 0.4090535 0.012272992 0.38213068 -0.4813402 0.022628045 -0.3292703 0.21345483 -0.30782884 -0.017654708 -0.17966127 0.1188131 0.07970323 0.32511857 -0.33423284 0.12999582 0.50075233 0.037616424 0.12955801 -0.2721527 -0.21827799 0.16984886 0.17142731 0.20807265 -0.10159107 0.070567876 -0.0260663 -0.047308266 0.4106206 -0.06715859 0.026629593 -0.13893917 -0.2767216 -0.23028272 0.53493243 0.52449757 0.4460784 0.19583125 -0.30452088 0.04800517 0.2920959
2 -0.34076002 -0.28162947 -0.61790377 0.12711649 -0.46372482 0.046216514 0.19639312 0.269001 0.3762086 -0.24061759 0.22309946 -0.14136495 0.26565605 0.3969784 0.5123908 0.48935816 -0.0057211206 -0.016490795 -0.03481176 0.3088816 0.4079522 0.38216615 -0.20261145 0.0311746 0.10649821 -0.076917656 0.37288558 -0.45666388 -0.10888628 -0.020114044 -0.057222787 -0.5056147 -0.058347043 -0.021629013 0.011081519 0.6940936 0.22745655 0.37760857 0.29284883 -0.10406323 0.34723157 -0.09786866 0.36001015 0.14039956 0.49317178 -0.15876742 0.11301307 0.23467968 0.3995366 -0.55043644 -0.200136 0.14415662 0.18165019 0.16438787 0.17560029 -0.03452179 0.32981482 0.6238837 -0.12224614 -0.30978078 0.058830295 -0.37207496 0.022665866 -0.5709844
1 -0.31833392 -0.18091235 -0.7035024 0.0426255 0.48679072 -0.23309267 -0.18559024 0.41311714 0.09695624 0.11338389 -0.20194395 0.21751384 0.100714915 -0.27400616 0.22243513 0.3919644 -0.17456864 0.089906044 -0.1370614 0.36649376 0.43687177 0.10363724 -0.16840982 0.22987568 -0.17789102 0.52235705 0.24918787 0.14344302 -0.00786717 0.06464385 0.38969502 -0.36129117 0.13593248 0.16681977 -0.42527184 0.49166527 -0.44992924 -0.5922019 0.32719293 0.19424689 -0.5381761 -0.074789666 0.04304374 0.26775664 -0.45821574 -0.1389297 0.08054615 0.4914657 0.2661984 -0.33426642 0.148576 -0.20682956 0.49467355 0.25049815 -0.5664811 0.4193905 -0.051949974 -0.10388502 -0.3331034 0.0100359665 0.3701046 0.14227173 -0.37860417 0.3290215
